-10	-18	-16	41	18	-8	2	30	-98	32	-3	17	6	-9	2	34	-34	38	0	72	89	14	-67	157	120	56	85	168	-101	-45	45	51	-32	-483	22	-290	431	-3	-39	-140	-11
-110	-7	-11	45	-16	23	62	-85	-137	14	-59	67	17	-42	-41	15	-26	31	7	42	52	23	-44	234	87	82	-10	153	-72	-28	54	50	-56	-449	17	-283	395	-25	-44	-112	-25
-18	-13	21	20	37	11	-4	18	-34	5	-9	12	-7	3	-17	-31	-24	1	-37	12	19	37	-67	227	95	74	37	133	-92	-19	69	17	-11	-531	33	-285	404	-12	-25	-143	3
-94	-18	-20	-107	-17	23	59	-78	-139	20	-60	70	8	-47	-46	25	-15	15	11	38	54	11	-46	230	87	76	-5	156	-76	-30	57	43	-23	-479	17	-284	386	-23	-45	-121	-24
-13	7	13	21	-16	-25	2	-11	-82	4	-32	-4	24	-50	-63	20	5	9	42	6	66	60	-74	242	52	40	59	88	-94	-38	69	36	6	-551	23	-259	415	-23	24	-184	-71
-95	-1	3	36	-1	9	7	15	-41	5	-29	12	-31	28	17	20	21	-54	3	-16	58	32	-59	225	119	69	48	120	-79	-27	43	49	-27	-523	36	-280	373	-21	13	-101	-24
-131	3	9	-77	11	21	45	-49	-103	19	-27	37	-48	-54	-83	-4	-36	54	-30	49	-3	29	-77	154	135	81	-13	187	-95	88	38	40	-50	-524	88	-307	362	-26	-14	-86	-86
-11	3	24	1	-17	20	3	21	-24	-16	-6	27	-27	25	-18	6	-12	-58	10	-9	35	54	-62	243	100	87	60	149	-70	69	62	37	-30	-493	40	-297	392	-26	-12	-103	-66
-97	-4	10	11	-21	19	-30	20	-40	16	-27	4	-29	-24	36	38	-22	33	-20	1	39	34	-102	144	93	60	33	93	-50	-22	48	42	-55	-535	48	-274	358	-19	-40	-78	-35
-91	2	-34	-16	-9	-12	48	-98	-123	45	-47	35	-11	-53	-66	25	-18	8	-10	34	49	40	-103	301	92	92	54	187	-74	54	57	36	-40	-575	45	-315	441	-27	-12	-133	-74
-83	-39	-1	75	11	64	21	29	-125	28	-77	43	-40	6	-21	80	-26	55	24	24	77	37	-63	188	110	73	83	187	-94	-15	35	42	2	-487	14	-302	404	-20	-15	-139	-18
-77	-23	-9	75	13	6	-13	25	-91	22	-1	18	12	-7	6	38	-38	52	-23	49	95	25	-65	162	107	56	84	167	-99	-24	59	37	-46	-496	23	-297	431	-25	-32	-135	-8
-107	-6	-16	-10	15	37	11	15	-35	18	-18	12	-21	30	10	0	8	7	18	17	34	26	-69	242	92	64	52	141	-79	-31	70	32	-27	-489	23	-284	386	-38	-32	-107	-26
-95	-31	-6	102	38	-29	-2	32	-78	37	-6	3	-45	6	7	31	-2	42	-22	53	90	34	-77	212	152	71	79	165	-236	91	41	38	-44	-537	85	-343	470	-34	-8	-152	-52
-112	-41	3	63	23	-7	51	-58	-93	70	2	44	50	26	-26	51	-27	43	38	31	164	50	-67	216	120	75	69	145	-94	76	56	46	-22	-498	26	-292	391	-18	-4	-146	-2
-101	-5	-6	-62	-5	5	7	8	-39	23	1	21	8	50	13	0	-15	-10	-10	24	78	31	-119	269	127	68	61	190	-78	73	51	58	-49	-484	20	-304	458	-14	-25	-91	-85
-89	-9	2	-28	-3	32	-12	-3	-49	40	-7	0	-4	38	13	5	-5	31	15	-10	25	33	-74	192	96	76	40	126	-108	-27	62	33	-35	-546	21	-252	409	-39	-41	-91	-70
-77	6	2	-33	-2	-30	27	-71	-117	21	-29	41	-52	-64	-72	31	3	21	14	-5	64	24	-62	208	89	43	-10	135	-38	13	16	25	-14	-410	29	-253	375	-30	-7	-123	3
-74	-10	-17	33	-21	33	-1	0	-65	19	-8	-3	3	29	16	5	14	28	6	-14	32	50	-68	203	97	72	66	134	-84	-26	51	53	-51	-616	47	-298	439	-30	-33	-136	-83
-79	-30	2	63	4	66	22	44	-127	2	-76	40	-54	5	-25	74	-22	58	11	37	79	47	-68	178	117	73	85	199	-100	-27	34	33	-13	-492	25	-295	414	-31	-32	-154	-25
-92	-32	3	74	6	61	-4	38	-128	9	-85	42	-62	8	-8	83	-25	51	-22	40	78	37	-102	228	141	82	61	193	-109	83	52	70	-50	-489	17	-317	457	-13	-21	-90	-71
-98	-19	8	91	-1	-15	-3	22	-105	5	-34	30	-34	25	19	25	21	-2	20	-18	60	50	-73	185	119	58	38	137	-91	-17	38	58	-10	-483	33	-291	369	-27	-17	-144	-28
-99	-6	1	-15	0	39	6	9	-41	41	-1	10	-14	27	13	-6	9	31	-2	-5	47	29	-80	240	102	67	41	141	-83	-30	69	51	-41	-476	20	-261	392	-49	-31	-73	-26
-66	-75	8	-102	44	-27	22	-72	-62	-9	-30	34	-14	13	-14	-5	-26	-167	-10	51	53	42	-98	192	116	68	46	163	-58	110	64	24	-46	-482	15	-306	460	-20	-22	-86	-82
-98	-5	1	-69	3	1	6	1	-38	29	6	24	-3	44	16	3	-30	-1	-3	15	77	28	-119	260	132	68	58	196	-75	77	53	46	-48	-488	21	-304	451	-19	-22	-88	-79
-133	-30	-15	77	18	5	-12	22	-93	24	9	23	20	-12	8	51	-30	52	-24	64	89	32	-105	232	154	60	-20	172	-90	89	31	27	-35	-523	-4	-314	448	-9	-33	-104	-16
-95	-6	15	95	3	-4	-5	24	-113	2	-35	27	-41	44	16	31	8	-16	29	-12	57	53	-70	183	119	65	42	131	-102	-22	40	54	-40	-485	42	-294	374	-19	-17	-112	-25
-86	-5	-12	-35	1	31	0	-5	-51	42	-5	10	5	33	12	19	1	25	8	-9	32	49	-75	208	99	77	64	203	-84	-36	47	37	-40	-547	35	-291	432	-35	-41	-112	-69
-7	6	10	36	-15	-30	-2	-22	-87	23	-43	14	-24	-3	-18	9	-6	10	40	-1	57	49	-57	173	110	66	79	182	-102	-15	40	43	-11	-493	13	-297	416	-23	-23	-127	-20
-91	7	-32	-22	-9	-15	41	-102	-117	42	-47	39	-11	39	-13	22	-20	6	4	29	46	44	-67	171	96	83	72	170	-66	-16	34	44	-6	-504	33	-318	385	-38	-28	-154	-78
-93	-23	10	106	10	2	-4	14	-82	18	-30	14	-21	19	-22	51	-15	-3	-28	-21	59	41	-66	169	112	71	79	181	-86	-18	27	45	-11	-501	46	-322	405	-44	-19	-145	-11
-54	-79	19	-96	36	-41	14	-77	-87	-9	-37	21	-72	1	-12	52	-15	-169	-9	30	63	13	-71	183	98	59	52	157	-96	98	59	25	-88	-515	7	-291	410	-30	-9	-72	-63
-83	-1	-5	-31	-2	31	-5	-12	-51	0	-9	8	-16	1	2	22	-7	24	16	-11	29	34	-72	213	130	85	100	204	-74	-41	53	52	-50	-545	15	-284	460	-37	-41	-114	-68
-133	-35	24	52	12	-7	21	-63	-91	9	-58	28	-65	19	-40	54	-13	38	14	56	7	25	-107	237	145	69	-8	185	-103	91	20	26	-34	-523	-4	-318	442	-17	-1	-122	-3
-81	-10	5	67	11	1	9	10	-44	2	-37	2	-10	9	-34	-1	0	18	-9	-22	48	24	-77	176	77	70	60	187	-73	-27	59	35	-27	-492	18	-291	421	-22	-51	-102	10
-141	-34	24	66	14	-7	11	-67	-90	12	-65	36	-68	24	-40	53	-2	40	20	60	2	28	-116	239	149	67	-15	183	-106	93	18	36	-36	-522	-3	-318	450	-22	-7	-124	-3
-6	-41	36	79	23	10	12	-88	-92	29	-45	20	-65	33	-45	40	-42	32	68	17	76	20	-106	257	81	59	-36	139	-108	-36	57	29	-27	-503	30	-324	432	-32	-11	-109	-59
-96	-2	3	-74	-4	11	7	1	-31	22	2	23	3	45	12	7	-22	-5	-8	19	73	33	-118	273	130	74	50	189	-73	83	54	52	-52	-483	8	-299	451	-18	-28	-88	-82
-75	-30	-12	107	41	-4	3	35	-102	33	21	21	-68	71	-56	29	-48	44	7	67	121	28	-66	155	117	63	148	189	-103	-27	52	54	-25	-462	27	-291	422	-28	-33	-127	-7
-87	-14	9	22	-6	-8	18	0	-31	7	-7	3	4	-2	-21	1	-12	-56	10	-7	37	42	-89	235	86	60	6	137	-180	88	62	40	-17	-510	40	-283	378	-31	21	-106	-14
-96	-29	15	54	1	15	3	13	-107	5	-31	15	-27	34	-9	32	4	2	24	-14	65	22	-67	190	97	63	50	129	-98	-23	40	69	-31	-485	33	-295	366	-39	-16	-100	-55
-87	-30	-10	57	1	-9	-38	40	-66	103	6	172	-60	52	67	42	-43	-92	2	-37	45	28	-61	223	126	70	24	158	-96	-19	46	55	-69	-462	48	-295	401	-60	-8	-123	7
-98	-7	8	100	11	-17	30	14	-106	0	-34	29	-34	40	-35	32	18	-2	24	-15	61	62	-97	249	144	91	71	200	-108	-10	68	42	-11	-621	51	-295	456	-16	-6	-119	-71
-107	-28	14	53	18	-2	10	-60	-96	64	2	54	48	17	19	57	-34	46	41	30	163	23	-70	167	115	65	56	179	-115	63	72	25	-51	-494	25	-281	417	-20	18	-115	-16
-129	-28	27	79	5	8	19	-84	-150	20	-40	33	-62	45	-40	62	-32	20	53	13	94	28	-82	235	153	63	-20	178	-93	93	25	29	-36	-518	-11	-313	453	-9	-29	-113	-12
-10	10	20	30	-12	-43	-4	-26	-88	21	-34	3	25	-60	-53	6	-3	8	39	9	57	61	-80	239	68	42	68	77	-95	-27	43	35	-20	-549	30	-261	425	-28	15	-164	-83
-121	-5	4	65	-1	2	15	12	-39	-1	-3	3	10	4	-22	13	-6	-59	-6	-9	41	26	-75	170	73	70	62	120	-73	-38	59	35	-33	-491	19	-292	415	-20	-42	-102	14
-40	-46	-7	56	34	-12	57	18	-70	-22	-46	14	-65	36	-79	71	-7	-24	19	-12	68	26	-76	192	97	77	76	165	-189	69	46	15	-38	-557	56	-303	414	-9	10	-133	-65
-72	-4	-6	-31	0	24	-10	-8	-40	46	-21	1	2	40	8	8	-6	20	18	-3	37	21	-89	201	115	69	54	189	-66	-36	50	54	-51	-538	61	-308	442	-13	17	-125	-30
-96	-5	-12	-30	-2	25	2	-5	-65	44	-11	13	1	41	28	-2	-6	28	18	-11	29	29	-80	183	102	83	106	178	-73	-26	42	46	-25	-445	35	-267	398	-17	12	-102	-59
-118	-1	9	24	-15	-13	9	-26	-32	22	-16	21	-16	45	12	5	11	-64	-17	-6	36	22	-86	172	102	52	101	171	-117	51	68	19	-60	-500	23	-275	420	-20	18	-132	-32
-111	3	-9	16	-11	-19	0	-29	-25	12	-22	19	-26	39	14	10	12	-44	-16	-2	34	25	-84	170	119	53	93	167	-119	73	65	15	-58	-494	18	-293	430	-20	11	-136	-27
-107	-5	6	-70	3	5	4	-7	-38	18	3	24	5	13	12	0	-15	-1	-9	6	70	55	-111	221	117	66	62	139	-63	72	39	49	-30	-436	20	-273	398	-19	-15	-157	-2
-101	-39	4	107	5	12	1	17	-85	13	-27	10	-14	29	-12	43	-12	9	-10	31	55	45	-89	168	98	67	82	175	-91	-9	26	45	-13	-507	46	-311	408	-41	-29	-147	-18
-72	6	17	-67	-4	28	6	10	-39	32	-45	33	-4	21	-28	53	13	-11	-4	16	58	25	-89	211	86	69	81	199	-90	-38	56	36	-45	-485	38	-310	425	-23	-26	-120	-71
-21	-37	37	68	23	11	50	-12	-85	15	-39	40	-56	7	-32	72	1	15	73	-48	110	32	-79	191	93	66	71	169	-48	-35	62	36	-39	-482	28	-293	412	-24	-39	-125	-56
-85	-42	54	71	-1	12	24	5	-113	20	-37	25	-21	-60	-38	85	-48	59	77	-32	110	44	-86	212	118	64	74	195	-100	96	54	60	-26	-510	41	-271	375	-14	4	-90	-69
-7	9	18	34	-12	-33	9	-17	-87	23	-36	6	25	-64	-56	11	-6	12	43	4	61	58	-83	240	64	39	63	81	-94	-28	39	38	-26	-542	26	-262	433	-21	10	-161	-82
-100	-30	-2	106	8	5	-6	21	-87	8	-28	6	-35	29	-6	56	-19	5	-25	-8	40	59	-77	163	106	84	79	175	-98	-23	36	60	-11	-509	27	-316	425	-33	-30	-161	-29
-66	-82	16	-98	43	-34	14	-69	-89	-14	-25	28	-58	9	-7	56	-25	-163	-7	24	56	16	-71	190	96	57	60	153	-99	100	59	28	-89	-498	3	-293	409	-28	0	-82	-62
-85	-7	-10	22	-16	-10	2	-35	-46	21	-14	30	3	50	22	-2	36	-52	-17	14	50	41	-89	230	120	62	-28	117	-69	-30	42	24	-36	-522	28	-270	383	-30	-31	-126	-21
-112	6	-6	21	-15	-20	-8	-34	-34	7	-20	15	-27	33	7	15	25	-46	-15	-10	45	25	-75	174	117	69	95	180	-111	62	66	14	-58	-495	15	-278	422	-11	11	-117	-21
-86	-20	3	92	-1	-8	-6	5	-104	29	-38	30	-41	43	17	20	14	6	31	-8	29	37	-100	293	93	89	71	190	-112	65	64	36	-48	-573	42	-358	443	-29	-6	-127	-83
-98	-43	10	84	20	52	-4	37	-65	12	-84	53	-50	-4	-23	67	-30	75	12	43	80	24	-66	216	106	76	30	143	-82	-24	32	52	-44	-448	18	-279	392	-31	-23	-122	-5
-78	-23	-18	36	-6	-1	-41	40	-61	109	40	178	-57	35	43	28	-40	-101	7	-36	54	19	-63	246	123	65	26	162	-92	-40	46	55	-70	-460	47	-264	389	-45	-1	-128	4
-102	-28	-1	93	-1	9	-1	11	-91	7	-28	6	-19	25	-16	43	-6	5	-28	-18	58	50	-76	174	106	70	82	175	-79	-19	30	46	-27	-503	47	-314	414	-41	-20	-153	-19
-113	-24	2	56	21	-11	60	-58	-105	69	-7	59	58	28	-9	53	-22	39	33	18	148	25	-71	185	115	66	41	130	-112	5	55	24	-46	-496	46	-293	371	-26	10	-143	-10
-75	-21	-10	84	10	3	10	26	-75	30	-4	23	12	-6	6	32	-37	41	-19	57	92	29	-70	164	118	60	85	162	-96	-36	53	52	-47	-483	23	-294	431	-27	-37	-139	-12
-88	-6	5	52	9	-16	61	-29	-93	103	-3	37	36	19	-2	3	-21	41	34	19	144	44	-85	183	93	91	75	160	-76	-29	54	62	-61	-552	57	-309	443	-29	-32	-122	-11
-86	-8	9	-29	-8	31	-5	1	-63	40	-6	3	6	36	10	12	0	14	10	-5	31	45	-70	214	105	85	65	204	-79	-38	52	59	-52	-548	38	-289	430	-27	-31	-120	-75
-101	-34	9	66	25	-22	35	-31	-94	56	-6	19	53	46	-41	44	-33	40	41	22	74	32	-80	181	116	52	108	167	-102	73	53	23	-54	-511	36	-288	418	-16	15	-142	-12
-129	16	-15	70	1	13	-12	13	-36	20	-3	12	-5	33	-11	-1	32	33	-40	22	100	70	-102	224	83	60	46	165	-55	-44	12	21	-44	-567	54	-313	417	-16	-19	-83	9
-100	-1	4	4	-17	7	13	24	-34	-13	-10	24	18	20	-22	6	-9	-55	5	-7	35	56	-103	297	90	88	54	196	-78	55	58	44	-35	-530	39	-328	445	-17	-2	-136	-15
-92	-29	32	72	-11	1	20	-79	-95	34	-52	5	-96	23	-29	37	-45	31	70	21	99	52	-73	157	89	73	44	124	-92	-13	26	68	-38	-503	36	-297	379	-34	-16	-119	-43
-65	-36	-8	-89	27	18	44	-49	-110	0	-38	61	-67	71	-80	55	-25	46	6	20	7	19	-81	230	120	72	-22	180	-97	63	17	36	-58	-507	12	-272	353	-20	-16	-152	-3
-86	-13	-1	97	14	-4	-5	14	-105	1	-39	22	-24	35	15	28	10	0	25	-12	55	54	-76	171	107	56	77	178	-92	-20	26	41	-14	-499	38	-317	410	-45	-15	-129	-14
-90	-6	14	96	3	-1	-4	18	-101	6	-33	15	-40	44	12	23	1	-8	29	-18	51	46	-79	188	116	59	41	132	-99	-6	40	48	-38	-487	36	-302	372	-31	-19	-115	-24
-62	-29	-8	-72	13	23	42	-60	-108	-17	-34	56	-78	72	-37	63	-21	51	-39	-29	85	22	-78	168	157	72	-21	173	-81	-15	8	24	-46	-514	39	-268	391	-28	-7	-156	-14
-160	-17	18	14	36	5	-8	7	-38	6	-6	20	-20	-6	-11	-33	-19	0	-35	5	24	26	-63	230	98	71	38	129	-102	-27	61	35	-39	-555	41	-286	411	-34	-20	-90	-7
-94	-21	1	23	3	7	17	3	-35	20	2	5	4	33	-25	-2	-15	-62	2	-12	29	49	-96	213	120	58	12	191	-183	88	49	48	-31	-495	48	-284	377	-30	16	-119	-21
-86	-4	7	36	-24	-7	15	3	-43	12	-20	13	-26	9	16	24	21	-60	-14	11	49	25	-58	259	101	56	81	173	-180	82	45	45	-54	-627	60	-295	387	-39	4	-127	-17
-97	-53	-1	57	11	53	21	33	-119	8	-78	43	-60	2	-25	70	-13	56	20	30	63	44	-71	162	117	82	72	169	-110	-23	38	45	-32	-497	11	-295	411	-28	-20	-132	-23
-86	-35	45	72	16	23	23	-5	-114	22	-37	19	-69	-57	-42	64	1	43	72	-34	111	46	-85	173	118	88	72	166	-100	97	41	63	-18	-512	50	-270	367	-34	5	-89	-69
-72	-33	17	-64	0	14	-11	9	-44	36	-38	42	-4	35	-3	51	10	-9	0	17	26	52	-66	168	98	84	70	169	-98	-23	20	43	-8	-452	33	-293	429	-39	-12	-86	-13
-102	-10	7	3	-48	8	-18	18	-54	25	-27	-7	-37	-13	5	18	-40	31	-40	11	35	37	-106	142	85	59	29	107	-52	-17	66	44	-37	-540	37	-285	348	-28	-1	-126	-64
-93	-56	-17	-97	37	-6	43	29	-76	-13	-61	22	-71	32	-3	83	-5	-16	8	28	75	21	-79	181	113	52	96	171	-97	69	27	32	-56	-516	43	-292	412	-1	2	-86	-20
-114	-5	-1	52	14	-23	53	-40	-90	107	-10	25	47	26	-2	5	-28	40	41	30	73	50	-82	177	104	91	72	204	-87	-37	51	57	-57	-545	49	-289	429	-21	-5	-132	-19
-142	-37	24	68	27	5	10	-84	-91	20	-45	15	-68	52	-24	71	-44	33	-15	81	91	38	-58	221	116	23	116	184	-91	-23	63	53	-54	-493	52	-253	384	-47	31	-123	-9
-92	-20	-13	6	-5	7	-10	3	-42	4	-4	7	-16	-5	-19	-32	-22	-2	-31	5	21	31	-79	185	105	73	40	181	-109	-29	68	33	-37	-546	32	-281	397	-19	-29	-87	-1
-164	-17	26	16	32	12	-11	12	-29	8	-5	20	-17	-1	-9	-32	-22	-1	-27	-2	22	32	-69	242	99	72	47	132	-104	-25	58	26	-31	-544	44	-286	400	-34	-35	-94	-8
-99	-35	7	101	15	10	-3	9	-79	17	-25	17	-16	31	-11	46	-13	0	-25	-12	51	39	-67	172	104	75	82	178	-84	-17	35	50	-8	-499	45	-321	403	-41	-16	-143	-11
-85	-17	9	98	15	-5	-2	9	-104	0	-36	26	-35	41	-60	31	14	-2	19	-18	53	47	-94	191	80	64	4	138	-180	82	50	42	-16	-504	41	-284	388	-23	9	-120	-17
-109	-19	10	-37	-15	24	2	18	-36	29	6	19	5	51	-3	42	-9	18	33	12	54	37	-69	222	92	77	78	198	-93	69	59	33	-47	-481	37	-318	425	-22	-21	-97	-75
-123	4	-9	18	-11	-1	8	-34	-43	10	-17	15	-22	45	12	17	13	-59	13	-2	38	39	-71	165	102	65	97	150	-78	98	27	41	-43	-491	29	-299	380	-7	-6	-78	-75
-71	-11	13	-25	-11	49	44	-99	-122	45	13	51	-8	53	36	18	-29	3	19	32	78	55	-103	286	97	92	61	194	-99	56	56	48	-34	-571	42	-329	446	-25	-2	-130	-79
-154	-16	12	18	31	13	-14	10	-32	13	-19	13	-23	-5	-6	-33	-21	2	-42	8	26	17	-68	233	99	74	39	138	-104	-22	64	36	-41	-546	26	-292	409	-31	-25	-94	-10
-85	-1	1	21	-21	-3	22	3	-31	35	-25	25	-21	5	13	17	13	-56	-8	-5	54	37	-97	227	90	73	81	194	-89	85	54	40	-53	-482	37	-303	430	-25	-10	-90	-77
-85	-6	19	16	-28	16	-21	22	-40	-1	-13	8	-10	-34	-5	-29	-17	15	11	8	26	32	-79	244	115	63	45	161	-67	-16	52	34	-44	-544	7	-262	349	-23	15	-100	-48
-72	-1	2	-57	-7	6	-2	3	-52	26	3	25	-21	14	-17	0	-17	-2	-12	27	78	31	-122	268	131	66	60	184	-70	86	61	47	-47	-485	15	-304	454	-18	-25	-89	-86
-94	-41	6	-146	21	-2	38	-39	-102	48	11	45	-5	34	2	53	-37	-4	43	26	81	32	-112	272	126	71	57	191	-74	77	50	55	-52	-487	21	-293	456	-10	-26	-79	-82
