42	0	1272	1184	1336	0	752	932	296	-434	-2445	0	-454	0	-925	-6688	1091	-1561	0	-630	0	0	1272	1184	1336	0	752	932	296	-434	-2445	0	-454	0	-925	-6688	1091	-1561	0	-630	0
44	1134	-1161	0	-1748	571	972	0	957	-621	0	28	-237	0	865	-4644	4722	-509	-929	0	-902	1342	-1166	0	-1628	593	801	0	1055	-598	-1030	105	-51	0	759	-4288	4372	-463	-729	0	-1019
39	0	-930	0	309	569	198	0	134	-1993	0	0	-362	-6061	-949	-7284	1211	0	0	0	0	0	-930	0	309	569	198	0	134	-1993	0	0	-362	-6061	-949	-7284	1211	0	0	0	0
44	219	-1411	5283	0	1485	1188	1199	0	835	160	0	0	0	0	-4923	1746	163	-863	0	-526	219	-1411	5283	0	1485	1188	1199	0	835	160	0	0	0	0	-4923	1746	163	-863	0	-526
39	530	-530	3527	1013	0	285	0	-45	0	-114	0	-296	-6259	126	-3121	2533	1381	0	241	0	496	-355	2886	576	0	460	1936	-633	0	0	659	-444	-6389	226	-3098	0	-1381	0	461	0
36	302	-1051	3249	79	1012	-908	1311	0	0	0	-1416	-211	-6367	-127	0	2986	218	0	632	-129	428	-1702	4024	0	0	0	-1982	0	835	0	-1673	0	0	0	-6849	242	-495	-965	-96	-709
43	405	-785	3212	0	0	316	1953	85	616	205	0	0	-5891	644	-3335	0	1247	116	157	1034	405	-785	3212	0	0	316	1953	85	616	205	0	0	-5891	644	-3335	0	1247	116	157	1034
39	309	0	2513	887	591	0	1793	0	0	195	384	-885	-7097	317	-3112	0	669	829	419	0	114	-663	3459	82	-773	604	0	-251	-680	0	0	-232	-6389	0	-4867	0	0	0	135	1751
45	0	-622	2531	839	828	-121	1563	0	-49	640	0	-1578	-6167	0	0	3494	0	0	1507	60	167	-1188	-1191	815	616	0	1901	1050	0	0	323	-927	-4558	447	-2664	1354	-648	-390	1762	0
37	878	-1200	2922	418	693	-1775	0	633	0	907	0	-1947	-7105	0	0	0	0	0	1521	0	181	-958	4849	0	0	-1567	2620	175	0	377	-936	-680	534	324	-2849	0	1526	324	870	1230
45	0	-631	1676	380	444	-19	1235	292	-232	196	0	-1228	-5912	0	-2815	2662	1026	0	1254	0	977	-1882	2639	1157	1264	-1226	481	-361	-290	156	542	-1381	0	0	-3133	1455	0	0	-1390	1667
47	438	-379	2844	425	-794	334	1898	-398	0	158	568	-511	-6113	-616	-2761	0	-1344	0	419	0	438	-379	2844	425	-794	334	1898	-398	0	158	568	-511	-6113	-616	-2761	0	-1344	0	419	0
33	759	-1569	3487	854	496	0	1704	-828	0	0	1193	-808	0	862	-3687	3556	0	0	-130	-68	-1135	-1497	0	1668	0	-1111	1437	-235	915	0	723	-427	-7185	0	-3077	0	-273	0	317	0
39	360	-689	3528	201	388	0	1707	72	-605	355	145	-536	-5830	147	-3215	0	855	113	-352	901	360	-689	3528	201	388	0	1707	72	-605	355	145	-536	-5830	147	-3215	0	855	113	-352	901
43	444	-1117	3208	0	0	-1233	1022	-123	570	641	-900	-676	-5167	0	-2273	2283	-222	0	-121	0	0	-693	1054	277	753	0	1061	74	0	717	-68	-938	-6016	720	-2751	2603	0	1030	1246	0
47	0	0	3539	626	-559	389	1627	0	0	0	112	-819	-5444	186	-3438	3024	0	0	235	0	0	868	3332	1628	571	868	987	0	0	0	388	-3614	0	-2102	0	0	-2309	-1298	2035	0
43	238	-1054	1944	1180	517	0	873	397	-1144	206	1308	-522	-4710	0	-2734	2700	0	0	137	335	314	-910	1703	985	494	1130	755	203	-937	279	-340	-683	-4825	319	-2570	2804	0	0	189	560
41	655	-1366	2973	732	-682	0	2099	-30	-709	-148	566	-1211	-8447	-193	0	0	0	0	-191	0	655	-1366	2973	732	-682	0	2099	-30	-709	-148	566	-1211	-8447	-193	0	0	0	0	-191	0
49	684	0	3555	0	0	-1364	0	984	0	-68	222	-930	-6652	197	-3873	0	0	703	0	-768	0	-734	1877	143	687	121	1223	577	-88	102	555	-1069	-5007	138	-3521	2071	1087	0	0	998
42	713	0	2874	0	516	-1120	1289	1215	0	0	493	0	-4593	170	-2935	2667	-152	0	-1200	62	0	903	-392	489	0	100	863	0	-832	0	0	-2181	0	-1113	-6349	3920	-1006	-1036	448	368
43	755	0	4875	440	44	0	1735	-79	0	45	0	-402	-6151	748	-4496	0	14	-217	0	0	-350	-142	-1558	1743	-54	-1643	377	-949	0	-1265	0	-1458	-4854	378	0	2476	-1304	-1449	0	0
34	366	-1086	4546	53	1237	-1032	0	0	0	0	0	-69	-7035	-170	0	3726	0	0	621	-60	270	-1257	4361	0	0	1144	-1643	0	820	0	-1364	0	0	0	-5699	1514	-421	-845	-188	-473
49	375	-830	2061	153	534	668	1328	-525	0	539	649	-80	-5551	1	-2927	2584	327	0	0	868	0	449	2264	783	0	-397	818	0	0	0	450	-2006	1319	-1521	-5548	1162	-1284	-1019	981	0
30	0	-979	2346	615	518	0	1314	-464	0	747	905	-489	-4678	760	-2417	2281	0	-740	12	735	78	-1407	2631	193	0	0	0	0	0	-44	919	-358	-5958	1049	-3142	3160	0	0	0	1060
42	662	0	3045	379	0	0	1084	-380	0	389	41	-212	-5630	758	-3536	2922	0	0	963	0	717	-824	2339	106	1106	132	0	0	0	338	5	-261	-5301	0	-3007	2805	25	897	827	-1308
46	0	-1139	2329	576	0	0	1341	-527	1213	32	0	-541	-4961	741	-2231	2696	0	-800	0	872	0	-1395	2321	163	310	0	1683	-445	-498	-83	772	-182	-5406	843	-3016	2834	0	0	-51	0
39	717	0	4749	443	-27	0	1808	-554	0	192	0	-443	-5920	691	-4457	0	0	0	0	0	0	0	2636	2764	-160	0	0	181	-1206	201	-442	-1029	-6828	500	0	3747	0	0	305	0
35	488	-1564	4015	0	932	-1571	1121	0	610	0	-419	-1031	-5256	0	-2824	0	0	0	-162	-8	0	-820	1174	339	708	0	1434	92	0	0	231	-951	-5753	594	-2809	2669	0	0	1234	1193
44	686	-949	3689	0	535	0	1037	-168	647	0	172	1097	-5828	353	-2583	1268	-344	0	299	-343	-1353	-1545	0	1680	0	-1058	1462	-92	0	0	0	-528	-7756	0	-3311	0	-251	0	455	-508
42	735	0	3149	136	0	0	1322	-447	0	451	-74	-227	-5893	0	-3518	3145	0	0	902	0	686	-833	2116	110	1118	124	0	-274	-462	286	107	-349	-4808	0	-3138	2590	152	937	741	-1170
47	388	0	3291	73	0	275	1389	-305	1065	0	0	-472	-5384	273	-2639	3048	97	0	0	1302	320	-1302	4948	0	1526	1090	1075	0	835	0	0	0	0	0	-6071	1566	-45	-811	0	-410
41	0	-1029	3598	0	0	0	1399	508	275	0	0	0	-5596	0	-2988	3283	359	364	-600	0	463	-849	3612	661	-476	465	1397	-228	218	131	119	-437	-5384	82	-3019	235	0	0	1566	658
34	416	-1315	2998	1163	0	0	19	-128	0	-1202	0	-737	-5058	-30	-2649	3156	0	996	-133	0	-1089	-1508	0	0	0	-1492	0	0	0	0	438	-1054	-6294	846	0	3765	0	0	1846	1669
38	523	-884	0	632	458	-206	1487	-130	-927	241	117	-630	-5366	528	-4205	2954	0	0	-119	-592	120	1146	-1069	497	1169	221	1960	0	-423	283	-1414	-473	-4893	0	-3566	2136	0	0	296	333
40	409	0	2812	427	0	1287	1464	-524	0	321	0	-278	-4506	198	-2917	2702	-604	765	0	787	0	-1339	0	623	653	0	0	-372	0	75	427	-688	-6320	0	-5035	2831	0	0	293	1343
40	384	-649	3331	122	-649	518	0	0	-698	542	0	-312	-6009	0	-4561	0	0	0	832	1394	384	-649	3331	122	-649	518	0	0	-698	542	0	-312	-6009	0	-4561	0	0	0	832	1394
31	0	-1287	3237	60	0	597	1584	-259	1126	0	0	-507	-4746	-197	-2529	2660	-137	0	60	1012	455	-1031	2564	-639	150	537	347	-177	-460	-794	0	-830	-5503	381	-3303	0	-648	-649	0	1531
38	1048	-877	3612	0	1061	-925	0	1084	0	-85	706	0	-5357	291	-1485	3289	0	0	180	0	709	0	2084	0	0	0	501	318	916	83	-1174	-1073	-3859	-706	-4605	2468	0	-403	549	552
38	35	-1498	3216	283	-608	713	0	-356	0	227	222	-362	-5886	-506	-4375	0	0	0	177	1535	35	-1498	3216	283	-608	713	0	-356	0	227	222	-362	-5886	-506	-4375	0	0	0	177	1535
41	0	-1238	2626	0	653	-1084	1500	-187	61	238	782	-199	-5698	974	-3577	0	0	1055	128	0	522	0	3067	910	318	-1155	0	414	0	273	0	-1798	-6009	1077	0	2898	0	0	1560	0
43	154	-384	3160	493	13	-499	1433	-423	0	377	0	-656	-5105	-194	-2301	2773	0	896	254	887	79	-482	3092	519	105	-499	1333	-477	0	383	0	-440	-5053	-249	-2126	2835	0	1161	299	869
31	244	-1169	2598	-104	0	0	0	0	-1362	-679	0	-1165	-7110	717	-3134	0	0	0	386	1333	232	-1294	2963	999	624	198	0	0	-1360	117	721	-1426	-5179	49	-3718	0	0	693	274	153
45	0	-1156	3444	0	-234	0	1353	629	430	0	-21	0	-5348	0	-3009	3385	146	0	71	775	239	-989	1727	1116	440	1192	736	271	-944	118	-249	-679	-4863	403	-2369	2899	0	0	127	640
44	441	-1043	2250	406	1329	1444	1363	-652	0	191	860	-226	-6038	185	-3463	0	110	0	0	0	658	0	3126	963	787	-1541	0	0	1152	107	377	-603	-5216	29	-3005	1067	0	0	0	1371
34	949	-733	2490	957	525	690	1079	102	-367	260	0	-101	-4840	0	-3481	1255	0	1272	810	89	0	-1031	0	1073	82	-529	0	-656	1638	181	291	-289	-5612	-511	-2841	3028	-172	0	-657	1408
49	258	-1064	2243	159	570	1427	1457	-277	0	829	0	-34	-6607	1048	-3834	0	0	0	193	0	697	0	2710	1019	482	-1364	0	328	0	366	0	-1845	-6773	1153	0	1478	0	0	1785	0
41	0	-1124	3068	0	-131	0	1628	553	0	0	3	0	-6439	0	-2693	2927	107	360	-691	-275	393	-593	2939	610	-805	361	1968	-174	0	271	184	0	-7073	116	-3648	0	0	-866	0	0
30	0	-951	2785	48	0	545	1402	-179	964	0	0	-502	-6474	-205	-2385	2405	-227	0	17	913	434	-1290	2526	-638	220	642	0	-290	-532	-619	0	-906	-5692	450	-3162	0	-774	0	0	1826
38	640	-721	2281	0	455	-53	1090	314	-1436	-70	0	-585	-4179	497	-3227	2603	0	-840	1008	0	-93	-449	1047	1421	0	-399	0	0	-1765	209	0	0	-7646	0	-4346	911	0	0	-1714	0
36	0	-983	3206	0	-290	0	1201	-536	432	-42	106	0	-6171	0	-2940	3100	184	563	135	-112	637	-891	-905	611	0	651	1267	-358	0	306	602	-634	-5948	0	-3353	229	1247	0	1527	835
43	299	-866	2804	782	0	-1145	0	-160	-1372	-109	0	-701	-4702	0	-2168	2461	0	639	1182	611	1301	0	1292	0	732	0	0	477	-1500	-2264	0	-1710	-6725	-950	0	907	-1642	0	-499	0
43	530	-1271	3339	0	0	-1335	864	-217	555	0	0	-846	-5595	0	-2543	2389	-199	0	-66	-250	0	-691	1211	205	775	0	1304	47	0	0	-1	-913	-6222	0	-2998	2688	0	0	1443	1502
44	563	0	3213	1142	561	0	1044	203	0	0	0	-688	-5754	0	-2767	3477	0	0	0	588	0	1245	-471	1289	0	-630	1207	0	1379	0	-1550	-941	0	-1395	-6336	607	-1261	-600	1089	0
36	898	-704	2935	0	479	0	0	-456	-680	-301	-33	-2	-6089	522	-3864	2810	0	0	228	0	1166	-526	2248	239	-166	-1587	1249	0	-1344	287	0	-1168	-4482	487	-3006	1122	-71	0	850	0
39	0	-867	2587	520	389	245	1589	-470	-437	-328	97	58	-5533	420	-3685	2591	0	0	184	0	382	0	5231	776	741	203	1673	-456	-758	-354	132	-1117	-400	290	-4367	3119	0	0	0	0
44	0	-794	2500	89	747	839	1477	1100	554	-257	79	-294	-4995	500	-2765	2783	0	0	225	0	-499	-1074	0	0	-1150	277	4298	0	0	690	0	1425	0	0	-5230	1982	1034	0	-1233	1107
43	762	-353	2731	0	846	0	1180	-122	0	213	-67	-1160	-4675	321	-3040	2734	0	398	1397	0	704	1613	0	-107	-84	1099	1348	223	-505	233	-129	-1088	-6068	0	0	2714	-1651	0	1050	-1385
35	153	-923	2832	26	0	504	0	0	-1205	-546	0	-1188	-6492	562	-2735	2475	0	0	359	0	366	0	3926	1308	687	0	0	0	349	1262	1085	-471	-5199	307	-4067	0	0	831	142	0
44	568	-1101	2508	737	-517	0	1851	18	-607	91	471	-1234	-7297	108	-2568	0	0	0	-324	0	-1291	-1513	0	1823	0	-1077	1429	-14	875	0	0	-355	-7284	0	-3177	0	-209	0	517	-436
42	568	-1011	2968	1018	0	-601	0	90	-1410	-293	0	-703	-5098	0	-2379	2591	0	0	1271	0	1154	0	1335	-70	899	0	0	383	-1592	-2418	0	-1780	-6743	-918	0	873	-1569	0	-266	0
41	550	-1167	3153	628	0	-1193	1391	-333	-988	-68	624	-991	-5238	0	-3025	0	352	0	81	-216	0	-722	1328	-1135	862	0	1470	29	0	0	-161	-594	-6516	767	0	2853	614	0	1527	1420
34	211	-1011	2473	-87	0	-286	0	0	-1058	-401	0	-1111	-5641	449	-3373	2672	0	0	208	1019	380	-1480	3706	1025	644	0	0	0	244	1067	992	-661	-4892	178	-3887	0	0	838	-6	0
40	411	-674	1873	363	-345	1412	1109	-338	-459	448	433	-220	-4620	245	-2565	2521	0	0	-1260	705	411	-674	1873	363	-345	1412	1109	-338	-459	448	433	-220	-4620	245	-2565	2521	0	0	-1260	705
22	629	-1207	2669	354	218	-400	1175	-567	0	15	734	29	-6469	0	-3364	0	-260	214	118	1580	116	-767	-1056	537	0	0	2311	0	-530	59	561	-398	-5687	568	-3905	2111	0	0	370	1025
37	817	-995	2341	1539	215	719	219	-53	0	0	0	0	-5313	781	-3208	3750	0	0	-50	0	-196	-1350	4600	454	302	1517	3119	0	0	310	839	0	0	1105	-6207	0	0	0	0	0
35	708	-709	2623	857	-414	-390	0	65	0	67	0	0	-6981	327	-3722	2909	0	0	226	0	261	-505	0	561	-799	380	2299	-693	0	0	753	0	-6820	553	-3609	0	-1537	0	374	858
39	407	-1026	4427	394	210	-28	1578	-67	0	-436	398	-494	-5604	701	-4229	0	0	0	0	0	0	1386	-641	1501	0	-625	1200	0	1532	0	-1605	-928	0	-1471	-6709	0	-1408	-621	-372	0
36	565	-915	2596	-11	1092	79	1105	-205	0	486	0	-456	-4757	0	-3143	2519	0	657	795	619	425	-800	2519	-46	1101	171	1115	-472	0	541	25	-394	-4526	978	-2736	2524	0	631	518	-478
39	0	-1261	2843	0	653	-971	1628	-163	65	346	848	-330	-5917	1069	-3772	0	0	0	134	0	384	327	3107	726	315	-1233	0	371	0	249	0	-1685	-5973	888	0	3047	0	0	1695	0
38	935	-878	2686	804	503	734	1050	17	-277	-121	0	-150	-4892	0	-3450	2245	0	1130	-128	0	-305	-1124	0	141	0	693	2394	0	0	35	732	0	-6975	1428	-4143	0	0	0	0	2029
42	0	-711	3133	1357	324	746	1312	-528	531	0	350	0	-6124	641	-2495	1686	0	0	-61	0	137	818	0	1575	0	-793	845	0	0	0	-2368	-3653	0	-2046	-3018	0	-1320	-1400	2027	0
37	608	-863	2573	359	493	676	1160	-25	-516	342	0	-319	-5079	308	-2914	2513	0	1132	-118	0	1075	-581	3657	-421	0	765	269	-679	0	0	418	-660	-4243	211	-2541	3010	516	953	0	0
44	168	-1452	2386	0	533	0	953	96	-1135	107	0	-685	-5178	0	-2907	3713	0	-159	-46	483	264	-1049	1796	1103	461	1179	818	473	-881	133	-212	-667	-4658	336	-2522	2635	0	0	295	518
36	0	-1422	1950	631	508	0	853	0	-1191	202	265	0	-6357	0	-2749	3125	0	0	127	620	312	0	256	0	586	446	0	0	-1365	0	-173	-2425	-6414	70	-3143	3760	0	0	300	749
44	0	-733	1885	1005	0	1177	1640	-109	-1604	0	0	-457	-6087	0	-2695	2304	0	305	0	0	0	-252	0	1293	0	-361	0	-929	-1916	129	0	0	-8233	-136	-4311	921	0	0	-1519	0
43	0	-475	2882	473	290	1328	1444	-723	-1647	367	119	-323	-4087	292	-2774	2042	0	0	0	735	0	-316	-149	807	0	-262	0	-844	-1652	-18	0	-1453	-7194	-101	-4828	1018	0	0	-1357	0
36	0	-720	2611	1224	0	708	1582	98	0	-27	226	-772	-7915	777	-2669	448	0	0	224	0	543	0	5046	610	2094	647	2074	0	-1263	736	291	-581	0	0	-6063	0	0	0	-52	0
23	534	-1441	2337	0	1032	-134	0	-91	-323	-70	641	-81	-5119	733	-3366	2930	0	0	0	1169	0	0	2288	265	258	-1438	1282	-210	-558	-65	897	-744	-4992	60	-2619	2764	-551	0	20	989
34	197	-998	3281	1068	0	0	1539	-125	0	-251	719	-795	-4877	242	-2623	2527	-74	660	23	0	0	-2052	1330	421	0	0	0	0	-1365	261	0	-443	-7964	147	-3469	595	0	595	1359	0
36	907	-769	2484	665	718	0	0	-188	-382	-256	-6	-738	-5578	639	-3796	2499	0	0	375	0	-429	-1122	0	142	0	1001	2820	-333	0	262	723	0	-7696	1747	0	1590	0	0	0	2136
38	0	-597	2500	874	554	0	1740	183	0	188	287	-1000	-7213	357	-3167	0	0	929	410	0	172	-651	3613	45	-734	660	0	-75	-825	0	-255	-208	-6216	0	-4698	0	0	0	169	1680
42	213	-1078	2410	0	538	893	224	-136	0	0	0	0	-5417	680	-3427	3809	0	0	18	1157	936	-1525	3444	0	383	966	532	-883	-1529	-17	0	-1961	0	810	0	5361	0	0	-492	1160
42	665	-309	3431	520	452	432	1248	-467	-4	405	0	-784	-5284	43	-2946	2436	0	368	207	0	-711	-756	3078	397	0	29	1694	0	-1321	277	330	0	0	-884	-3649	3539	-734	-740	1218	642
38	810	-949	2106	1024	105	0	1379	387	-1101	0	144	-591	-4983	0	-2466	3103	145	-269	438	0	0	-566	2483	612	288	98	1349	0	0	93	-1531	-1442	-6424	0	-2872	0	0	0	1286	956
39	0	-770	2771	862	0	-975	1714	-95	0	-258	0	-959	-4622	331	-2531	2896	0	0	1216	0	1030	-1055	622	20	862	162	1487	0	-245	355	832	-1360	-6431	0	-3301	0	-703	55	0	1480
34	354	-1267	3030	1363	0	602	24	-98	0	0	0	-953	-5047	119	-2719	3317	0	1035	-72	0	-903	-1351	0	0	-301	-1495	0	0	0	0	146	-919	-6095	863	0	3531	-1205	0	1781	1409
39	570	-829	2766	821	0	0	1628	0	0	-238	0	-880	-4946	0	-2349	2762	0	925	1285	0	0	0	877	0	370	0	-653	3	-1640	353	0	-1703	-5720	-788	-5323	714	-1535	0	-321	0
47	573	-1527	2584	0	0	-59	0	-93	-305	8	616	-134	-5513	846	-3602	2928	0	0	0	1210	0	-685	2276	170	0	-1318	1223	-251	-703	-15	972	-623	-4722	-86	-2375	2801	-587	0	81	1114
21	578	-924	2601	328	168	-542	1148	-763	0	-266	705	-119	-6296	607	-3258	0	-253	0	19	1425	222	-808	-1331	648	0	313	2795	0	-560	117	0	-751	-7329	759	0	2609	0	0	478	1280
40	625	-1041	2536	603	516	0	1357	-324	-488	-396	51	-10	-5421	458	-3453	2448	0	0	273	0	220	-806	1915	236	-1086	1142	1152	0	-1174	0	522	-137	-5190	90	-2723	2774	0	0	0	834
34	148	-1534	2610	1077	336	0	727	82	-1113	475	506	0	-6115	0	-2549	2715	0	0	13	0	0	-876	3256	0	0	-134	1564	0	-1201	0	-54	-1879	0	-928	-3902	3613	-573	0	1175	844
36	617	-1121	3282	583	0	0	1343	368	-945	114	512	-732	-5377	522	-3118	-946	339	0	81	0	1301	-2539	0	-747	36	0	0	-100	0	119	499	-282	-5368	939	0	5356	557	0	0	2156
20	746	-1376	2332	0	1008	-187	0	-177	-238	22	496	-54	-5179	643	-3370	2912	0	0	0	1259	0	-627	2475	228	232	-1307	1295	-114	-617	-86	776	-648	-4712	-157	-2337	2823	-526	0	-49	991
33	57	-1035	3492	667	499	172	0	-633	-605	-203	63	-450	-5359	0	-3612	2970	-23	0	161	0	316	0	5370	117	747	475	1768	-406	-840	276	0	-1087	0	257	-4299	3231	371	0	438	0
40	743	-1260	3428	637	0	0	1408	451	-930	109	448	-799	-5520	806	-3067	0	344	0	50	0	1695	-2860	291	-865	27	0	0	0	-981	115	600	-317	0	1301	0	6593	0	0	1885	2472
42	1027	-873	2849	0	467	-1026	1224	1025	0	0	157	0	-4512	117	-3003	2676	0	136	-704	204	0	761	-438	453	0	212	1104	0	-827	0	0	-2398	0	-1133	-6019	3775	-952	-947	717	265
36	808	-949	2676	612	604	507	837	-810	-575	118	-8	-344	-5028	0	-3446	2503	-120	0	52	0	0	-1054	3048	345	0	853	2163	0	0	719	228	-522	-5498	0	-3926	0	0	0	0	1643
41	574	-629	2794	0	946	847	1458	1160	-330	-161	220	-570	-5864	0	-3027	1409	0	0	-10	0	-739	-976	0	0	-1270	97	4441	-447	0	403	0	1400	-165	-1376	-4898	0	2589	0	-1113	84
36	401	-788	3297	932	0	0	1612	55	0	-275	0	-724	-4806	394	-2401	2400	-140	590	1184	0	562	-1615	969	0	0	0	1547	0	-1261	0	0	-156	-6519	505	-3447	0	-804	694	1921	0
36	261	-998	2684	827	574	-230	1065	33	0	474	0	-274	-5266	252	-3514	2167	0	1239	139	0	-68	-666	3063	193	159	541	1518	-400	0	157	269	-838	-4079	820	-3010	2908	0	0	0	1312
36	0	-1156	2697	1241	591	0	98	122	-1197	242	528	-689	-4584	233	-2714	3132	0	777	0	0	-851	-853	0	0	578	-1324	1969	-551	0	-431	262	-913	-5122	580	0	3043	-890	0	1611	1021
42	424	-888	3423	594	-146	-264	1509	-481	0	423	0	-139	-5431	0	-2479	2803	0	0	206	788	182	-871	3747	783	0	0	-1472	-402	660	200	-980	-968	-4443	-170	0	3159	0	788	-339	-836
35	823	-1304	3584	1170	526	0	1039	0	373	88	54	-284	-6285	0	-2768	1232	-123	0	161	-185	0	0	5092	0	1402	1078	-1623	-433	0	415	0	0	0	462	-6205	1733	-290	-862	62	-343
36	217	-894	2594	-66	0	503	0	0	-1113	140	0	-1104	-6150	568	-2887	2398	0	0	207	1161	-293	-1103	2920	150	892	-15	1516	0	0	188	878	-1421	-5456	0	-3708	0	0	0	0	1461
48	287	-951	2784	994	0	0	1476	92	0	-192	0	-945	-4924	458	-2741	2450	0	473	1234	0	1191	0	1139	0	443	0	0	214	-1594	0	0	-1608	-5415	-682	-4824	791	-1227	-417	-455	0
42	817	-1230	2738	460	882	0	955	0	0	458	-26	0	-5488	307	-2951	3006	0	0	40	-641	723	-1415	1068	114	-42	1504	0	0	0	0	-219	-1211	1974	0	-3512	2678	-2163	1581	1796	0
42	565	-354	3263	754	0	-125	2009	66	0	-79	167	-576	-5445	304	-2769	2215	0	0	269	-1040	543	-573	3094	809	-867	609	0	-553	75	-41	887	-512	-6271	386	-3064	0	-1548	0	168	0
41	830	-900	2518	-553	387	0	1329	-432	-524	70	182	-941	-5023	400	-3458	2339	0	0	-113	0	0	960	-525	0	0	176	1185	-790	-1117	0	759	-1399	0	-1629	-6470	1432	-953	-1519	1087	0
30	904	-771	2137	122	541	755	1341	-305	0	-262	0	-802	-5103	0	-3574	3242	0	-141	0	0	0	-1040	3188	0	419	619	0	-277	-675	178	920	-275	-4952	0	-3648	2346	0	0	551	912
38	322	-933	2439	774	-282	321	1538	-55	0	242	0	-187	-5555	0	-2898	2949	0	0	-339	1166	139	1046	4983	0	353	1094	-1605	-483	627	0	0	0	0	407	-6115	1614	-379	-631	6	-518
32	226	-821	3010	889	455	1190	1507	-38	0	25	552	-107	-4285	441	-2327	2153	0	374	937	-664	696	-1340	1072	1027	440	0	1514	0	535	0	0	-228	-6368	580	-3654	0	-688	0	1858	0
39	404	-835	2429	459	448	37	1157	-181	-518	133	40	-456	-4800	345	-3641	2462	0	1120	-103	-431	380	-628	0	534	0	332	2421	0	-445	349	403	-566	-6010	496	-4246	2487	0	0	224	477
42	0	-506	2008	647	618	-103	1377	391	-176	605	-105	-445	-5022	0	-3222	2986	0	0	1354	437	276	-922	-1025	-575	489	0	1616	988	0	0	338	-528	-4148	416	-2692	2853	-609	-497	1779	249
40	502	-991	2378	570	0	360	1587	-177	0	184	141	-204	-5784	0	-2959	2909	0	0	-229	1025	-347	-1338	3487	217	0	0	0	-442	0	276	358	-370	-6204	-499	-4758	0	0	0	69	1635
33	1048	-838	2295	205	495	156	1146	-267	0	-313	225	-844	-5151	0	-3671	3253	0	-92	0	0	0	-907	0	123	533	644	642	-342	-608	367	1134	-434	-5798	0	-4235	2736	0	0	544	952
43	375	-384	3868	0	0	294	1767	0	-731	0	89	-603	-4543	421	-2843	3115	0	505	461	0	1033	-311	3596	-508	839	-287	498	-450	0	0	390	-581	-4254	246	-2473	3125	390	867	153	0
32	1038	-780	2243	0	624	421	1044	-126	0	-362	212	-923	-5846	0	-3439	2936	0	4	0	0	0	0	92	0	589	0	0	0	-568	0	-283	-2661	-6878	176	-3286	4246	0	0	487	735
43	639	-409	3053	943	0	-21	1898	274	0	-148	120	-538	-5341	286	-2814	2000	0	0	281	-1234	392	0	3469	882	0	622	0	-493	0	71	778	-644	-7134	117	-3438	0	-1678	0	281	0
43	0	-993	1899	634	707	42	1288	-160	-295	85	327	-980	-5633	101	-3799	1864	0	0	575	618	0	-1420	0	834	603	95	0	0	-1209	222	901	-1399	-5668	-196	-4702	1099	-547	394	120	592
39	344	-785	2956	677	0	1452	1378	-671	0	385	74	-177	-4811	196	-2999	2571	0	0	0	525	0	-1272	-352	562	558	-648	0	-58	822	177	679	-489	-5272	-477	-4187	2599	0	-378	307	1161
45	677	-1367	2269	1322	938	12	0	-287	-235	0	463	0	-4793	549	-3110	2734	0	0	0	1243	-1079	-1204	0	1424	0	-799	1188	-266	774	0	0	-480	-6590	0	-2797	2478	-482	0	46	-392
42	86	-562	3702	745	494	254	1422	-445	-378	11	73	-704	-4585	457	-3221	2550	-79	0	232	0	237	0	6015	1062	863	370	1936	-315	-886	-534	7	-1313	0	538	-4783	0	398	0	441	-302
43	423	-1320	2238	1056	669	0	1030	136	-1140	171	0	-551	-4802	0	-2819	3335	0	0	-30	278	212	-934	0	1451	475	1374	890	256	-956	141	-294	-792	-5317	0	-2773	3150	0	0	274	712
42	584	-400	3199	665	0	-112	2114	101	0	118	245	-573	-5259	323	-2776	2114	0	0	108	-1309	448	-474	2834	658	-840	482	-1039	-519	0	51	778	-453	-5695	174	-2900	872	-1171	0	260	352
37	677	-1040	2582	607	617	481	746	-888	-697	86	-74	-337	-5036	0	-3519	2580	-36	0	0	0	0	-1356	2983	261	0	737	2166	0	0	523	259	-485	-5489	0	-3993	0	0	0	0	1747
36	782	-1021	3052	1039	0	-411	0	-7	0	-189	0	-856	-8015	472	-3992	0	0	0	163	0	243	0	0	601	-917	297	2488	-812	0	-350	0	-648	-7296	593	0	2733	-1508	0	561	955
40	599	-1003	2713	571	0	316	1692	-260	0	8	-46	0	-6138	0	-3257	3181	0	0	-216	0	-84	-1232	3722	0	-693	702	0	0	0	105	102	-190	-6082	-504	-4616	0	0	0	193	1773
39	792	-1064	2962	362	263	513	918	0	-733	113	-65	-206	-5399	0	-3659	2924	-4	0	2	22	-137	-707	-995	355	0	363	2309	0	0	314	715	-502	-5649	605	-3865	2015	0	0	440	1028
42	365	-1102	3113	1023	447	0	901	345	0	-346	262	-732	-5339	0	-2411	3202	0	0	0	412	0	1435	-382	1475	0	-704	0	0	1395	0	-1592	-1045	0	-1636	-6872	0	-1483	-793	1188	0
30	847	-1060	2795	557	380	0	0	-389	60	395	0	-972	-5981	-120	-3263	2886	0	0	296	0	280	-1591	2878	1208	797	1038	0	0	286	1318	-1396	-579	0	408	-4043	3252	0	780	145	0
42	949	-954	3153	0	540	-1057	1236	0	0	0	293	-485	-4807	31	-3208	2981	0	210	0	96	-70	1030	-563	469	0	293	1361	0	-968	0	0	0	0	-1186	-6706	4131	-1181	-1069	747	228
33	853	-855	2872	751	354	295	1314	-541	821	-240	63	-735	-4579	0	-3297	2416	0	0	-14	0	853	-855	2872	751	354	295	1314	-541	821	-240	63	-735	-4579	0	-3297	2416	0	0	-14	0
40	548	-940	2552	565	0	308	1641	-293	0	-63	-18	-356	-6071	0	-3309	3200	0	0	-137	0	54	-1309	3489	0	-624	719	0	0	0	166	0	-441	-6181	-609	-4564	0	0	0	123	1721
41	384	-744	2022	312	0	1251	1175	-488	-214	359	470	-3	-4994	72	-2763	2751	0	0	-1246	753	372	0	2211	283	707	0	1339	-471	-406	519	366	-171	-5190	227	-2719	2905	0	0	-1341	772
31	530	-1102	3433	581	0	847	1110	-6	515	0	422	-314	-5159	147	-2835	2471	-41	0	-30	-458	599	-1277	4133	-176	0	672	1375	-839	0	0	-207	-1886	-6922	306	0	0	-774	392	-441	0
35	826	-1157	2720	77	517	0	1608	-312	-419	81	160	-726	-5700	243	-2633	2586	0	0	234	0	571	0	5031	0	1577	1108	1193	0	933	107	0	0	0	0	-6377	1561	209	-914	0	-419
37	410	-1140	2087	1230	275	0	631	0	-1235	75	298	-913	-4440	601	-3559	3092	0	0	15	0	443	-1103	1999	1086	209	0	684	397	-897	147	884	-579	-5141	336	-2287	2930	0	0	192	685
47	412	-1109	1942	1191	521	0	991	245	-1218	0	0	-839	-5138	0	-2769	3384	0	0	51	190	0	-1184	2123	1324	0	0	1015	117	0	321	-173	-605	-5530	675	-2650	3269	0	0	247	768
40	531	-814	2526	420	582	-48	1196	-250	-685	196	28	-497	-4972	306	-3707	2726	0	0	41	-475	188	-475	0	592	0	227	0	0	-490	390	843	-624	-6850	693	-4852	2757	0	0	423	597
47	389	-920	1927	1416	571	0	998	176	-1120	-393	192	-854	-5131	0	-2744	2739	0	0	0	430	0	-1084	2111	1154	0	0	844	367	-839	251	-300	-768	-5446	377	-2642	2849	0	0	324	643
37	801	-937	2768	1018	658	387	953	0	0	59	246	-519	-5118	0	-3649	2816	56	0	14	0	-224	-844	2746	-57	1093	678	1809	0	0	359	617	-385	-5340	0	-3618	853	0	0	0	1378
34	372	-932	3380	698	0	0	1588	132	0	-35	382	-834	-4761	341	-3512	2359	-19	654	0	0	732	-508	2063	0	0	0	1572	0	534	0	0	-210	-6984	435	-3694	0	-571	582	2116	0
38	550	-648	1903	503	438	0	1075	159	-1464	-192	0	-529	-5409	582	-3140	2416	0	0	991	0	-112	-438	1289	1202	0	-186	0	0	-1850	77	0	0	-8055	-19	-3978	980	0	37	-1778	0
33	942	-868	3119	787	443	0	0	0	-264	-144	45	-734	-5679	0	-3904	2893	0	0	178	0	1431	-572	1930	174	920	-1600	1161	0	-1171	171	0	-1191	-4280	225	-2813	1287	-369	0	705	0
41	437	-761	2707	474	629	-53	1245	-107	-640	29	23	-470	-5097	313	-3725	2664	0	0	-54	-572	222	-447	0	469	0	225	2306	0	-472	411	712	-517	-6061	586	-4182	2428	0	0	436	527
38	740	-996	2140	1001	154	0	1226	442	-457	-114	494	-651	-5113	0	-2326	3028	0	0	477	643	0	-1441	3226	830	301	99	0	0	-1233	337	746	-1376	-5627	-325	-3016	0	-545	445	-74	379
38	570	-772	2592	729	0	-8	987	-369	-622	68	98	-513	-5077	117	-4114	2839	0	0	0	-526	366	-943	0	770	0	112	0	0	0	615	578	-752	-7156	0	-5030	2893	0	0	784	0
41	511	-732	2370	670	591	-233	1021	-189	-657	-18	240	-334	-5014	397	-3783	2627	0	0	-232	-381	0	982	-368	1086	0	0	883	0	1090	0	-1117	-610	-5262	-1085	-4877	0	-1109	-524	1007	0
36	646	-731	2280	567	517	-198	928	-10	-758	49	62	-429	-5147	160	-3969	2834	0	0	0	-714	2	0	936	1405	0	-444	0	0	-1755	557	0	-707	-6783	-206	-4638	2567	0	0	0	0
40	569	-716	2447	642	546	-139	1046	-199	-616	80	76	-423	-4989	210	-3870	2720	0	0	-238	-474	283	-725	0	710	0	231	0	0	-515	584	573	-772	-7060	0	-4879	2901	0	0	769	0
87	32	217	-547	2981	830	165	-540	1429	-41	0	202	0	-725	-5787	211	-3924	1980	187	0	234	0	-267	-1008	-846	569	0	749	0	0	0	0	422	-1318	-4617	0	-5230	2814	0	-23	0	2137