-21	19	-13	27	-2	14	25	-6	-34	13	-23	35	-54	26	-6	44	-34	-25	37	4	55	35	-81	231	113	88	70	236	-101	94	9	81	-61	-566	61	-299	433	-36	28	-153	-39
-91	-7	46	-37	46	0	23	-27	-19	17	-30	-12	6	0	-37	6	2	17	37	-41	81	39	-125	184	106	33	64	143	-21	52	44	46	-32	-449	85	-295	357	-22	-31	-133	-24
-169	-24	22	-57	19	5	-1	-36	-5	20	-27	17	44	-21	-10	44	-8	17	16	13	23	42	-112	189	80	44	74	142	-97	79	55	68	-32	-502	70	-266	378	-19	-9	-159	-81
-134	-17	26	-120	-13	-22	29	29	-44	48	7	49	-2	34	-28	16	25	19	30	26	64	18	-106	174	88	59	63	164	-44	104	22	45	-32	-419	54	-246	412	-37	5	-108	-11
-13	10	-6	31	1	11	33	-11	-34	13	-30	46	-62	13	-4	34	-28	-43	28	6	50	27	-79	222	114	86	64	231	-109	93	19	81	-58	-569	65	-297	434	-22	18	-148	-48
-152	-29	5	-46	26	-19	15	17	-30	-10	-32	45	5	24	-17	-6	-15	-21	15	22	49	27	-87	165	102	39	59	151	-102	94	10	68	-21	-423	57	-261	411	-14	-1	-113	-7
-130	13	4	-54	23	-32	-20	-44	-20	16	16	31	-28	-34	25	56	-1	-8	-44	8	44	27	-103	250	128	56	82	170	-114	106	27	42	-30	-654	68	-368	447	-31	6	-139	-92
-128	-9	3	26	-10	-48	-16	1	-10	91	3	-3	18	14	-61	-22	-46	38	54	49	77	40	-83	184	70	68	43	139	-109	85	-9	46	-23	-494	29	-290	401	6	1	-137	9
-90	8	-19	-51	50	4	-25	-51	-37	22	14	40	-37	12	14	35	-52	28	45	-2	103	26	-89	236	86	90	61	158	-116	64	64	65	-3	-570	15	-338	394	-21	-16	-187	-24
-94	-37	-6	44	8	-53	-6	-26	-33	18	-3	-15	-6	-3	-68	-16	-42	31	62	1	95	22	-85	169	86	72	68	147	-112	102	13	34	-52	-585	66	-298	427	-26	4	-141	14
-91	2	12	15	31	-26	-1	-8	-14	24	-22	-12	-11	-32	2	2	8	-18	-22	4	13	11	-71	216	99	40	67	117	-98	108	42	63	-31	-543	60	-263	371	-26	23	-100	-75
-157	-36	22	-116	32	-21	21	29	-47	43	-22	39	-3	41	-4	-10	-18	33	33	4	57	23	-87	158	93	84	55	135	-64	86	2	58	-52	-420	52	-245	411	-35	-5	-127	-46
-33	-1	12	-64	13	0	55	-57	-24	-7	-43	31	3	2	20	11	-27	17	-29	34	109	41	-87	245	88	75	42	170	-126	75	62	62	4	-573	21	-355	428	-26	1	-178	-24
-82	-5	-23	-41	47	-14	30	-51	-35	10	14	39	-16	19	22	31	-48	7	21	1	55	35	-82	187	106	62	51	135	-14	59	34	71	-30	-488	25	-274	325	-18	-1	-109	-6
-132	8	-7	13	3	-15	-19	-6	-61	-8	-23	16	43	-55	-8	45	-26	23	0	33	58	35	-58	189	58	59	63	153	-94	99	15	51	-50	-506	16	-232	409	-12	11	-131	4
-127	-20	34	-111	-5	-2	-30	-60	-89	-15	-9	14	67	-30	-14	-10	-38	-6	21	9	66	26	-54	211	129	50	49	121	-110	75	43	32	-44	-582	9	-300	476	-14	9	-109	-55
-85	4	-8	-45	17	-31	11	-35	-12	22	15	6	-34	-36	11	59	-9	1	-39	17	61	24	-96	188	72	44	51	125	-105	74	21	37	-4	-428	42	-287	419	-18	-21	-94	-62
-97	-10	30	69	5	-12	-22	-46	-72	-25	-23	25	46	-30	-42	21	-14	3	3	6	75	43	-94	193	90	52	36	134	-85	88	34	27	-37	-502	18	-277	420	-30	10	-122	-76
-129	-9	1	-67	39	-15	13	-40	-30	23	-6	12	-27	-24	28	47	-32	-7	-43	18	57	22	-92	162	83	51	50	103	-80	89	36	60	-29	-585	50	-250	418	-16	-3	-113	-6
-59	18	-7	22	13	-7	19	-24	-38	0	-1	2	28	-43	5	34	10	3	11	-11	17	44	-93	229	111	58	68	188	-122	80	66	58	-51	-629	56	-297	413	-14	-2	-173	-10
-132	-27	37	-126	-6	-11	31	15	-45	54	-4	43	8	33	-11	-16	15	18	24	12	53	32	-109	167	85	70	75	153	-59	92	41	48	-44	-431	44	-243	415	-40	10	-115	-6
-94	5	3	-65	55	-8	-16	-43	-24	25	-6	-13	-22	-22	24	55	-8	-7	-48	14	54	31	-102	196	94	64	69	121	-90	75	50	49	-32	-624	60	-275	393	-22	20	-125	-73
-70	1	-5	-65	15	36	17	-47	-27	25	-22	23	-7	-33	-31	20	-12	-23	51	-67	39	48	-92	210	91	77	106	142	-116	123	24	36	-85	-551	40	-341	426	-13	-42	-170	-37
-135	3	3	-56	30	-14	18	22	-30	3	-19	47	5	16	-15	40	-8	-20	16	14	43	36	-84	168	100	45	81	148	-113	85	28	71	-22	-431	53	-264	416	-22	13	-115	-11
-56	-3	15	-25	43	5	26	6	-58	-4	-28	-11	21	1	-34	7	-32	22	42	-43	46	35	-89	192	91	43	63	141	-92	87	39	30	-28	-513	13	-286	407	-31	4	-102	-62
-71	10	5	31	8	-23	-1	-3	15	11	12	22	23	-43	-3	34	18	6	23	-2	1	57	-118	230	105	56	73	187	-111	93	44	47	-48	-633	70	-300	436	-33	12	-144	-10
-140	-18	39	-115	-8	-1	-29	-54	-75	-32	10	19	61	-19	-27	38	-50	-8	36	12	76	17	-68	225	102	42	63	135	-107	76	30	56	-56	-549	26	-312	472	-16	19	-141	-78
-134	-34	-17	45	0	-52	-13	-25	-46	60	0	0	21	3	-63	-13	-44	44	57	5	105	28	-88	163	96	81	76	146	-107	93	12	21	-48	-532	71	-313	432	-26	1	-135	12
-34	-5	15	-63	2	-3	50	-61	-25	-6	-43	20	6	-2	16	6	-32	21	-26	43	102	39	-92	239	102	80	46	160	-120	76	65	61	2	-570	22	-358	427	-23	8	-179	-27
-83	0	11	-59	19	33	19	-45	-26	28	-34	23	2	-32	-20	18	-12	-14	62	-71	38	39	-83	218	97	81	110	143	-117	123	31	40	-93	-555	27	-347	413	-21	-28	-173	-42
-24	12	10	-61	5	-7	42	-58	-35	-8	-38	25	1	7	15	11	-36	36	-22	49	102	36	-97	235	87	85	49	157	-134	69	58	62	-6	-563	24	-342	443	-14	-10	-193	-29
-24	-14	25	-26	37	-2	30	-8	-63	12	-40	-19	1	-14	-44	15	-28	-1	45	-37	45	48	-85	233	89	74	54	181	-120	66	45	52	-52	-635	18	-332	448	-36	-12	-198	-22
-132	-21	-7	58	8	-10	-20	43	-48	39	4	38	0	17	-4	71	-3	29	43	-107	81	22	-50	184	89	52	47	155	-100	119	45	43	-32	-564	37	-337	436	-29	8	-116	-29
-93	-8	75	80	77	-43	-48	10	-116	66	-47	32	-31	-51	26	82	-27	-82	61	34	102	30	-95	241	87	86	80	198	-142	97	74	34	-44	-587	22	-304	495	-13	14	-122	-83
-58	5	12	81	58	-55	-10	-1	-86	37	-20	55	-2	-23	-13	69	-20	39	45	35	49	49	-75	224	107	58	78	163	-131	102	52	60	-55	-635	59	-337	451	-16	-14	-182	-69
-95	14	6	-60	36	-6	-14	-25	-24	18	-19	-14	-31	-34	27	52	-7	-8	-43	16	56	19	-91	168	90	51	80	186	-87	84	53	47	-32	-630	47	-276	380	-40	19	-105	-23
-170	-26	18	-81	-23	5	51	-3	-48	43	-39	12	11	-5	-13	42	-19	4	49	-61	25	36	-89	225	116	46	73	171	-134	74	46	36	-63	-620	50	-334	442	-38	-13	-122	-91
-77	10	7	-57	14	18	17	-53	-34	30	-23	35	-2	-34	-17	36	-32	-15	44	-74	38	62	-85	232	101	75	73	174	-121	145	66	54	-59	-627	46	-330	459	-12	-13	-196	-82
-169	22	2	10	23	-22	-4	-16	-2	-2	-3	35	28	-51	-9	29	14	6	-13	-24	3	44	-116	229	93	55	65	183	-127	78	29	58	-50	-584	59	-296	434	-27	-6	-181	-7
-165	-23	2	-93	-8	1	19	-54	-45	47	-23	8	21	-36	-22	56	2	10	27	14	26	30	-98	171	91	44	59	156	-63	86	31	67	-44	-423	78	-258	391	-45	-16	-129	-9
-117	11	-4	13	2	-17	-20	-20	-56	-4	-19	7	51	-59	1	24	-32	-26	-7	31	63	37	-75	227	75	60	74	172	-122	120	37	55	-56	-505	29	-237	441	-23	4	-145	-3
-130	-24	22	-121	-14	-18	37	25	-53	47	6	54	6	20	-24	64	11	23	28	6	58	21	-102	173	82	57	73	163	-49	86	24	54	-39	-420	57	-243	410	-27	15	-119	-9
-155	-7	31	58	15	-1	-31	-57	-75	-26	-24	31	47	-29	-53	21	-10	-11	3	8	71	38	-70	189	82	50	37	132	-89	89	36	35	-45	-499	10	-283	413	-30	16	-120	-79
-87	-3	-44	73	38	-39	52	0	6	-39	-42	116	-30	-119	31	-8	-39	-75	42	36	113	26	-81	201	99	53	60	122	-22	67	49	66	-38	-492	24	-284	400	-20	2	-112	-7
-131	-33	56	-103	-13	-12	-43	-65	-37	37	-31	55	69	53	-24	-10	-38	-7	30	3	60	27	-70	174	104	41	65	142	-122	109	45	45	-45	-558	24	-315	465	-37	-1	-144	-73
-168	-1	41	71	47	-63	-8	-12	-96	72	-52	61	-6	15	-17	67	-18	47	37	29	50	46	-75	209	104	42	55	127	-108	101	36	33	-60	-538	10	-306	462	-5	-1	-136	-55
-147	7	35	-55	22	-18	11	22	-36	-16	-31	40	4	29	-21	45	-15	-21	28	16	47	18	-84	158	91	40	76	148	-106	74	30	60	-21	-425	56	-273	418	-24	12	-116	-13
-103	-19	-13	53	17	-5	-26	43	-44	36	-40	39	8	12	2	67	2	25	40	31	75	27	-53	181	82	46	41	155	-96	125	37	51	-43	-561	31	-335	435	-30	1	-122	-29
-94	49	49	-153	-37	41	-22	-1	-40	60	-56	11	9	40	51	12	-3	-8	77	5	140	36	-90	223	111	46	77	169	-129	66	28	52	-54	-632	49	-342	439	-31	-34	-128	-88
-87	-19	32	63	-6	-24	-28	-43	-48	-31	-5	-1	35	-20	24	16	-28	-15	14	14	51	41	-96	181	73	85	36	144	-79	59	49	56	-30	-508	33	-265	413	-27	10	-95	-71
-87	14	41	-62	47	-5	49	-22	-39	38	-34	6	-19	-22	4	16	12	2	13	20	23	49	-86	219	82	73	113	153	-111	124	28	42	-42	-539	45	-303	422	-11	-37	-167	-43
-86	-22	24	14	6	-20	-34	-45	-58	-20	-9	10	57	-21	32	17	-23	-3	-10	27	83	48	-81	221	75	34	74	166	-127	102	34	64	-79	-494	21	-248	438	-19	5	-146	5
-85	3	12	-61	14	33	17	-37	-33	28	-30	19	4	-36	-21	22	-17	-21	52	-73	39	37	-85	216	98	82	120	148	-111	124	20	47	-78	-550	37	-336	424	-21	-34	-168	-40
-107	-2	2	-64	44	-11	-15	-40	-23	21	0	-13	-29	-26	8	59	-12	-11	-38	8	54	27	-108	197	79	57	77	120	-88	79	52	47	-20	-627	72	-280	371	-32	28	-128	-13
-131	4	12	-60	-5	-6	5	-64	-20	-9	-45	31	-2	6	14	5	-29	20	4	46	102	35	-89	251	99	83	82	186	-128	79	66	63	-7	-565	29	-359	424	-33	17	-161	-25
-97	-19	8	-25	50	-17	34	4	-66	9	-40	-13	-6	-9	-40	10	-9	31	39	-48	51	29	-78	232	111	71	83	174	-129	69	45	56	-58	-643	36	-357	458	-25	-3	-123	-90
-120	-18	-21	52	12	-11	-27	42	-36	37	-47	38	-1	13	7	67	-1	26	38	40	78	36	-52	193	84	47	41	152	-88	119	41	55	-46	-563	23	-325	442	-34	-1	-125	-35
-134	-32	38	-128	-9	-5	25	12	-50	47	-1	40	9	33	-12	-12	20	16	24	6	56	36	-89	161	92	72	63	152	-52	88	45	54	-37	-428	56	-243	411	-41	6	-122	-8
-55	20	-2	25	12	-27	-1	-25	-2	8	-2	31	21	-40	6	36	18	5	-6	-10	5	54	-120	227	110	57	87	183	-117	87	31	62	-42	-640	62	-294	437	-13	-2	-174	-10
-123	0	-8	-55	38	-7	-20	-73	-33	20	3	38	60	10	22	35	-49	18	26	2	61	49	-96	258	126	54	69	167	-130	107	48	39	-24	-664	67	-312	445	-26	-2	-141	-76
-102	6	2	-55	40	4	-27	-59	-35	29	29	42	-36	4	29	39	-27	29	62	-12	54	41	-96	236	103	59	62	124	-21	55	30	57	-17	-474	42	-288	414	-16	8	-118	-8
-144	42	11	-148	-39	50	-22	-27	-60	69	-58	24	33	28	-14	1	-12	-9	59	-7	133	36	-82	230	119	47	68	173	-33	80	47	46	-57	-622	45	-350	440	-29	-21	-122	-90
-137	-5	91	60	22	-22	59	7	-106	-40	-60	25	-33	-14	22	67	-50	-91	48	34	116	40	-102	239	102	61	54	108	-50	63	46	44	-33	-478	24	-289	419	-24	7	-129	-14
-106	-30	24	-124	-16	-11	37	34	-44	50	5	18	74	30	-30	5	11	23	33	15	60	42	-92	158	88	57	71	160	-48	96	28	56	-32	-417	53	-247	318	-23	4	-119	-67
-94	51	37	-155	-45	40	-20	-6	-42	51	-51	20	5	29	47	17	1	-20	64	1	143	33	-90	229	106	52	80	171	-127	76	24	50	-53	-631	40	-335	438	-32	-19	-126	-79
-112	-20	-9	56	15	-8	-19	39	-43	37	-37	35	10	31	2	67	9	27	36	20	80	24	-52	186	88	59	36	150	-104	119	38	53	-43	-554	33	-328	445	-33	10	-116	-32
-30	-23	-3	-53	16	-11	-3	-34	-14	7	-7	11	2	2	7	57	-3	-7	37	-13	51	31	-95	211	82	57	64	141	-93	120	64	33	-25	-537	74	-275	401	-31	24	-120	-10
-95	-9	25	59	3	-5	-30	-47	-72	-23	-31	28	49	-22	-53	27	-19	-4	2	5	78	34	-99	184	91	51	43	128	-84	75	42	37	-45	-505	21	-274	407	-31	7	-116	-69
-50	-9	39	-63	-5	-35	33	-26	-56	40	-5	0	20	5	42	15	-18	21	2	21	50	34	-83	206	82	82	76	171	-84	84	34	42	-30	-516	8	-283	415	-12	12	-125	-66
-92	-1	25	70	2	-5	-29	-50	-75	-21	-31	33	57	-33	-46	29	-26	6	2	14	78	36	-101	227	99	78	116	145	-106	92	48	53	-90	-550	32	-340	500	-22	-37	-142	-35
-118	-10	-7	70	22	-5	-28	43	-44	33	-41	47	-8	7	-5	76	7	19	35	29	78	38	-60	182	90	51	50	163	-97	118	42	51	-45	-567	42	-341	442	-32	4	-126	-38
-101	1	-25	-49	40	10	-26	-57	-35	22	24	50	-39	3	33	31	-50	21	56	-14	50	46	-98	242	120	56	71	166	-124	119	42	31	-29	-644	76	-317	444	-23	20	-132	-63
-134	-9	82	56	35	-25	-59	18	-108	-37	-27	30	-38	-27	28	78	-71	-86	51	34	132	36	-74	228	83	64	70	160	-62	75	22	47	-44	-503	30	-320	444	-29	34	-140	-18
-136	-4	36	-33	-9	-17	11	-53	-48	26	-18	6	-6	7	14	-3	-26	-28	3	-22	53	28	-80	234	107	49	81	172	-124	88	37	49	-53	-495	27	-267	437	-8	9	-156	-13
-141	-15	15	38	-9	-57	-36	9	-9	91	11	-9	23	8	-64	-25	-39	3	57	48	60	29	-77	200	109	39	57	137	-119	103	39	30	-25	-563	26	-324	460	-15	-7	-152	-10
-105	15	4	27	18	-25	-21	-8	-59	-5	-18	56	45	-60	4	18	-25	-34	4	-1	55	33	-62	219	86	40	77	148	-104	131	29	60	-28	-437	65	-255	379	-38	-2	-132	-24
-136	-15	31	-67	28	-20	5	23	-33	-4	-22	39	-8	19	-27	46	-10	-23	16	15	43	32	-81	162	81	45	79	147	-103	82	31	75	-23	-429	52	-259	418	-28	17	-117	-19
-54	-7	-3	49	21	-14	-27	45	-39	-17	-39	50	-8	-34	-19	64	-22	24	37	27	72	40	-75	188	94	49	50	146	-104	127	45	36	-49	-561	33	-340	429	-28	4	-126	-80
-59	-12	4	-23	41	-24	36	-31	-70	11	-38	-12	8	-7	-37	-4	-10	27	44	-42	44	37	-73	201	84	53	60	141	-89	86	48	42	-27	-512	37	-282	416	-12	13	-87	-69
-141	-24	6	33	-9	-54	-33	7	-9	92	9	-16	25	7	-69	-15	-51	38	51	40	61	22	-80	184	92	64	59	142	-100	83	10	43	-36	-509	30	-289	409	-4	2	-145	2
-131	51	68	-188	-38	50	-54	-25	-72	43	5	76	99	12	-27	24	9	3	39	-14	92	44	-123	202	119	69	84	175	-87	120	59	65	-53	-523	38	-317	560	-32	-17	-157	1
-83	-10	24	-29	47	1	31	8	-60	14	-37	-7	4	4	-28	8	-33	15	40	-37	41	37	-101	226	117	50	83	176	-134	67	49	54	-35	-657	39	-350	436	-27	-13	-136	-87
-57	15	0	23	3	-26	-4	-23	1	-5	4	37	31	-46	3	45	11	5	-14	-7	8	37	-114	231	119	46	63	189	-120	73	34	56	-55	-629	49	-296	433	-18	-3	-175	-8
-107	26	-10	59	0	5	-33	41	-13	51	-43	39	-31	20	-8	-3	-6	28	21	35	81	19	-62	207	96	46	73	118	-92	112	46	38	-56	-517	70	-269	374	-31	29	-124	-38
-71	7	1	30	11	-29	6	-6	-3	-1	9	30	20	-11	-5	24	22	-1	26	-1	12	49	-134	246	117	65	73	158	-123	130	44	44	-53	-668	55	-330	445	-25	-15	-177	-79
-93	55	35	-154	-36	34	-25	-7	-51	57	-58	25	8	37	47	18	6	-10	75	3	143	35	-94	229	112	50	81	174	-128	66	14	52	-50	-625	39	-338	447	-29	-24	-119	-78
-152	-33	17	-80	-19	5	-30	-48	-50	54	-44	21	24	21	-31	50	-30	-11	12	9	80	33	-74	205	104	42	63	136	-112	98	47	26	-29	-549	15	-303	462	-16	-9	-142	-60
-115	-4	5	-70	13	-29	-10	29	-29	23	-7	0	-33	-40	18	53	4	17	-38	22	59	35	-63	184	87	49	47	166	-89	113	39	47	-44	-677	46	-341	443	-26	0	-126	-39
-69	14	-22	-36	48	2	-5	-13	-30	21	9	29	-37	17	18	32	-44	11	46	1	53	52	-100	261	115	73	73	179	-133	105	41	44	-64	-667	74	-325	435	-29	15	-130	-79
-67	12	2	29	25	-30	-5	-13	12	11	14	18	24	-44	3	18	24	18	20	2	7	47	-126	235	108	43	76	189	-109	97	46	44	-53	-624	61	-295	432	-25	16	-142	-3
-116	-24	12	50	62	-8	-13	-19	-103	73	-21	10	-7	-32	-107	82	-16	32	32	24	42	47	-99	248	117	51	66	180	-119	107	49	38	-35	-629	26	-305	443	-31	-6	-144	-79
-94	-13	73	78	72	-40	-58	7	-103	-32	-46	25	-29	-29	24	80	-41	-90	66	35	102	32	-83	238	97	46	57	123	-34	84	40	31	-25	-482	32	-282	403	-13	6	-124	-14
-53	2	36	66	16	25	2	-39	-23	-14	-16	20	-14	-42	-36	25	-35	-34	55	-88	80	42	-84	215	106	64	85	162	-134	122	53	47	-52	-627	58	-337	453	-23	-33	-184	-74
-138	-24	35	-120	-6	-8	30	12	-36	51	-4	41	7	32	-16	-14	13	16	27	3	64	35	-98	168	101	70	72	156	-62	87	41	58	-44	-423	48	-248	413	-37	1	-119	-7
-86	-28	29	63	-2	-22	-37	-43	-56	-24	-8	10	30	-22	21	12	-29	-13	4	15	56	39	-93	191	70	76	45	153	-89	55	49	56	-29	-504	25	-272	431	-14	6	-98	-71
-139	13	-2	-45	23	-14	-22	36	-33	31	-34	58	-9	16	0	69	-7	22	38	29	75	45	-90	248	131	51	76	164	-122	112	43	36	-26	-663	65	-298	443	-16	15	-138	-71
-131	-17	-4	36	-14	-54	-41	5	-8	89	6	-16	4	5	-64	-21	-49	38	55	9	62	16	-84	180	96	66	61	137	-102	91	10	46	-34	-422	23	-286	411	-6	11	-147	-2
-71	5	-9	29	10	-35	-5	-7	10	-2	9	20	22	-47	0	24	17	11	21	-3	5	42	-113	237	107	48	76	182	-119	99	53	42	-61	-633	63	-298	430	-33	16	-141	1
-19	46	66	25	-33	51	-29	-10	-40	48	-54	63	17	10	-35	25	-20	-7	-57	9	68	45	-119	237	128	49	23	163	-125	119	16	79	-39	-629	25	-346	566	-28	-16	-152	1
-158	-21	10	-85	-10	9	-25	9	-51	48	-50	-15	19	13	-62	42	-25	35	15	17	31	20	-67	183	85	62	56	144	-101	82	21	45	-29	-506	29	-290	414	-3	3	-160	-3
