-71	0	-90	-3	-14	56	-4	35	62	-66	-109	81	-95	-10	17	45	-66	75	-65	-39	-58	60	-71	54	34	-18	128	-76	-56	83	42	-41	-95	22	94	-82	-41	-69	-53	-78	-72
-67	90	-56	-32	-2	17	4	-35	20	-18	-12	-51	-10	-6	63	44	27	22	-30	74	68	60	106	-11	-32	-59	52	-49	-29	67	-48	49	41	-75	38	-9	-84	89	12	69	22
58	-2	-73	14	-95	51	63	-6	57	-78	-109	69	-104	-6	-72	39	-64	75	-64	-41	-30	70	-54	51	33	-12	127	-71	-51	82	39	-37	-92	15	105	-83	-38	-64	-55	-74	-72
54	25	79	20	-103	70	53	-2	-59	-13	-5	47	-40	84	-56	-68	55	-18	78	102	-23	69	92	49	-25	-59	-79	53	62	-51	71	61	26	2	83	-13	-22	-14	6	-36	75
-72	5	-74	-47	-6	6	10	33	-41	-17	-80	-5	90	-76	77	45	-44	68	-59	-30	-48	54	-64	50	30	-3	130	-76	-65	78	72	-38	-87	31	86	-93	-34	-63	-51	-77	-70
-80	27	-79	18	-96	78	40	-2	-63	-6	-3	55	-48	89	-67	-62	61	-15	78	90	-17	45	87	46	30	-63	-69	56	60	-56	60	56	15	-8	83	-17	-10	-49	15	-42	72
2	-70	1	-72	-46	1	4	-1	27	-53	-20	-82	-9	82	-81	73	46	-42	54	-35	-31	-47	56	-66	-22	37	2	-97	-77	-54	85	76	-41	-100	67	84	-95	-96	-57	-54	-73	-73