0	-18	-32	-31	-58	-81	91	78	-56	-26	57	-49	72	85	46	72	-66	-81	6	44	87	-45	-30	-28	89	41	-86	82	14	97	-87	-68	-70	-93	-55	-12	-62	-23	60	35	91	-481	-18	-32	-31	-58	-81	91	78	-56	-26	57	-49	72	85	46	72	-66	-81	6	44	87	-45	-30	-28	89	41	-86	82	14	97	-87	-68	-70	-93	-55	-12	-62	-23	60	35	91	-482	-16	-25	-13	-61	-72	95	74	-48	-26	56	-46	77	95	53	67	-62	-79	21	39	91	-44	-44	-32	58	45	-90	84	7	98	67	-61	-73	-95	-65	-5	-61	43	67	27	97	-473	-14	-30	-25	-49	-89	101	79	-47	-30	60	-54	52	81	56	69	-67	-81	10	38	72	-48	-49	-40	88	39	-83	87	9	95	-95	-65	-58	-99	-47	-14	-65	-17	48	36	97	-564	-14	-30	-25	-49	-89	101	79	-47	-30	60	-54	52	81	56	69	-67	-81	10	38	72	-48	-49	-40	88	39	-83	87	9	95	-95	-65	-58	-99	-47	-14	-65	-17	48	36	97	-565	-14	-30	-25	-49	-89	101	79	-47	-30	60	-54	52	81	56	69	-67	-81	10	38	72	-48	-49	-40	88	39	-83	87	9	95	-95	-65	-58	-99	-47	-14	-65	-17	48	36	97	-566	-14	-30	-25	-49	-89	101	79	-47	-30	60	-54	52	81	56	69	-67	-81	10	38	72	-48	-49	-40	88	39	-83	87	9	95	-95	-65	-58	-99	-47	-14	-65	-17	48	36	97	-567	-14	-30	-25	-49	-89	101	79	-47	-30	60	-54	52	81	56	69	-67	-81	10	38	72	-48	-49	-40	88	39	-83	87	9	95	-95	-65	-58	-99	-47	-14	-65	-17	48	36	97	-568	-14	-30	-25	-49	-89	101	79	-47	-30	60	-54	52	81	56	69	-67	-81	10	38	72	-48	-49	-40	88	39	-83	87	9	95	-95	-65	-58	-99	-47	-14	-65	-17	48	36	97	-569	-14	-30	-25	-49	-89	101	79	-47	-30	60	-54	52	81	56	69	-67	-81	10	38	72	-48	-49	-40	88	39	-83	87	9	95	-95	-65	-58	-99	-47	-14	-65	-17	48	36	97	-56